{"features": ["duration", "protocol_type", "service", "flag", "src_bytes", "dst_bytes", "land", "wrong_fragment", "urgent", "hot", "num_failed_logins", "logged_in", "num_compromised", "root_shell", "su_attempted", "num_root", "num_file_creations", "num_shells", "num_access_files", "num_outbound_cmds", "is_host_login", "is_guest_login", "count", "srv_count", "serror_rate", "srv_serror_rate", "rerror_rate", "srv_rerror_rate", "same_srv_rate", "diff_srv_rate", "srv_diff_host_rate", "dst_host_count", "dst_host_srv_count", "dst_host_same_srv_rate", "dst_host_diff_srv_rate", "dst_host_same_src_port_rate", "dst_host_srv_diff_host_rate", "dst_host_serror_rate", "dst_host_srv_serror_rate", "dst_host_rerror_rate", "dst_host_srv_rerror_rate"], "cat_columns": ["protocol_type", "service", "flag"], "cat_categories": [["icmp", "tcp", "udp"], ["IRC", "X11", "Z39_50", "auth", "bgp", "courier", "csnet_ns", "ctf", "daytime", "discard", "domain", "domain_u", "echo", "eco_i", "ecr_i", "efs", "exec", "finger", "ftp", "ftp_data", "gopher", "hostnames", "http", "http_443", "imap4", "iso_tsap", "klogin", "kshell", "ldap", "link", "login", "mtp", "name", "netbios_dgm", "netbios_ns", "netbios_ssn", "netstat", "nnsp", "nntp", "ntp_u", "other", "pop_2", "pop_3", "printer", "private", "red_i", "remote_job", "rje", "shell", "smtp", "sql_net", "ssh", "sunrpc", "supdup", "systat", "telnet", "tftp_u", "tim_i", "time", "urh_i", "urp_i", "uucp", "uucp_path", "vmnet", "whois"], ["OTH", "REJ", "RSTO", "RSTOS0", "RSTR", "S0", "S1", "S2", "S3", "SF", "SH"]], "numeric_columns": ["duration", "src_bytes", "dst_bytes", "land", "wrong_fragment", "urgent", "hot", "num_failed_logins", "logged_in", "num_compromised", "root_shell", "su_attempted", "num_root", "num_file_creations", "num_shells", "num_access_files", "num_outbound_cmds", "is_host_login", "is_guest_login", "count", "srv_count", "serror_rate", "srv_serror_rate", "rerror_rate", "srv_rerror_rate", "same_srv_rate", "diff_srv_rate", "srv_diff_host_rate", "dst_host_count", "dst_host_srv_count", "dst_host_same_srv_rate", "dst_host_diff_srv_rate", "dst_host_same_src_port_rate", "dst_host_srv_diff_host_rate", "dst_host_serror_rate", "dst_host_srv_serror_rate", "dst_host_rerror_rate", "dst_host_srv_rerror_rate"], "numeric_mean": [48.431986559248614, 3362.6837425610297, 846.9175362333509, 4.048419092344439e-05, 0.006191550949354277, 2.5302619327152746e-06, 0.03434830573660985, 0.00014169466823205537, 0.1479595967774584, 0.010690356665722036, 0.00010627100117404154, 4.048419092344439e-05, 0.012041516537791992, 0.0009741508440953807, 0.00011133152503947209, 0.0009868021537589571, 0.0, 0.0, 0.0013764624913971094, 332.2149786445893, 292.83913353710375, 0.17647456074652845, 0.17638139650216592, 0.057950411926642645, 0.05823633152503947, 0.7913831929881381, 0.021020783571515322, 0.028926258046232948, 232.492968402089, 188.58709161572406, 0.7534975810695924, 0.03100084510748553, 0.601988456945063, 0.0066965659285049195, 0.17653308570503218, 0.17622884701024247, 0.0586241953767054, 0.05793272539573297], "numeric_scale": [710.7032190967516, 1104444.2111019085, 31362.38938003525, 0.006362590035019519, 0.13214948537710275, 0.0015906776953518353, 0.7801642994461241, 0.013866500261686633, 0.3550599308552154, 1.9607667050736957, 0.010308234943400883, 0.008110805834248681, 2.1932385571720734, 0.08599422457037273, 0.011019989930207086, 0.03611981975024818, 1.0, 1.0, 0.03707516476574159, 213.17418279818776, 246.34730397206894, 0.38054188694958835, 0.3808235881158408, 0.23263656994025733, 0.2331661471861711, 0.38825455071286386, 0.08225983658235311, 0.14220547541543285, 64.7060625485213, 106.08569064168451, 0.41097002964055834, 0.1096011149389865, 0.4813010202740788, 0.04214501114536492, 0.3804102685902647, 0.3807328429062902, 0.23158849986537167, 0.23112483644322412], "tree": {"classes": ["dos", "normal", "probe", "r2l", "u2r"], "children_left": [1, 2, 3, 4, 5, 6, 7, 8, 9, 10, 11, 12, 13, 14, -1, -1, -1, 18, -1, -1, 21, 22, 23, 24, 25, 26, 27, 28, 29, 30, 31, 32, 33, 34, 35, 36, 37, 38, 39, 40, 41, -1, -1, -1, 45, -1, -1, 48, 49, -1, -1, -1, -1, 54, -1, -1, 57, -1, -1, 60, 61, 62, 63, 64, 65, 66, -1, 68, 69, -1, -1, -1, 73, 74, -1, -1, -1, 78, -1, -1, 81, 82, -1, -1, 85, 86, 87, -1, -1, -1, 91, 92, 93, -1, 95, -1, -1, -1, -1, 100, -1, -1, 103, -1, -1, 106, 107, -1, 109, -1, -1, -1, 113, 114, 115, -1, -1, 118, -1, 120, -1, -1, 123, -1, -1, 126, -1, 128, 129, -1, 131, -1, -1, -1, 135, -1, 137, -1, -1, 140, 141, 142, 143, 144, 145, -1, 147, 148, -1, -1, -1, 152, -1, 154, -1, -1, 157, -1, -1, 160, 161, 162, -1, -1, -1, 166, -1, -1, 169, -1, -1, 172, -1, -1, 175, -1, -1, -1, -1, 180, 181, -1, -1, -1, 185, 186, -1, 188, -1, -1, -1, 192, -1, -1, 195, -1, -1, -1, 199, 200, 201, 202, 203, 204, 205, -1, 207, -1, -1, -1, -1, 212, 213, 214, -1, -1, -1, -1, -1, -1, -1, 222, 223, -1, -1, -1, 227, 228, 229, 230, 231, 232, -1, -1, 235, 236, 237, 238, 239, 240, 241, 242, -1, -1, -1, -1, 247, 248, -1, 250, -1, -1, 253, -1, -1, 256, -1, -1, 259, -1, -1, 262, -1, -1, -1, 266, 267, 268, 269, -1, -1, -1, -1, -1, 275, -1, -1, 278, -1, 280, -1, -1, 283, 284, 285, 286, 287, 288, 289, 290, -1, 292, -1, -1, 295, -1, 297, -1, -1, -1, 301, 302, -1, -1, -1, -1, -1, 308, 309, -1, -1, -1, 313, 314, -1, -1, -1, 318, 319, -1, -1, 322, -1, -1, 325, -1, -1, -1, 329, 330, -1, -1, 333, 334, -1, -1, -1, 338, 339, 340, 341, -1, 343, -1, -1, 346, -1, -1, -1, -1, 351, 352, 353, -1, -1, 356, 357, -1, -1, -1, 361, -1, -1, 364, 365, 366, 367, -1, 369, -1, -1, -1, 373, -1, 375, -1, 377, 378, -1, -1, -1, -1, 383, 384, 385, 386, 387, -1, -1, 390, 391, -1, -1, -1, -1, 396, -1, 398, -1, -1, -1], "children_right": [382, 363, 350, 337, 328, 327, 324, 317, 226, 221, 20, 17, 16, 15, -1, -1, -1, 19, -1, -1, 198, 197, 194, 191, 184, 179, 178, 177, 174, 139, 134, 125, 112, 59, 56, 53, 52, 47, 44, 43, 42, -1, -1, -1, 46, -1, -1, 51, 50, -1, -1, -1, -1, 55, -1, -1, 58, -1, -1, 105, 102, 99, 80, 77, 72, 67, -1, 71, 70, -1, -1, -1, 76, 75, -1, -1, -1, 79, -1, -1, 84, 83, -1, -1, 90, 89, 88, -1, -1, -1, 98, 97, 94, -1, 96, -1, -1, -1, -1, 101, -1, -1, 104, -1, -1, 111, 108, -1, 110, -1, -1, -1, 122, 117, 116, -1, -1, 119, -1, 121, -1, -1, 124, -1, -1, 127, -1, 133, 130, -1, 132, -1, -1, -1, 136, -1, 138, -1, -1, 171, 168, 159, 156, 151, 146, -1, 150, 149, -1, -1, -1, 153, -1, 155, -1, -1, 158, -1, -1, 165, 164, 163, -1, -1, -1, 167, -1, -1, 170, -1, -1, 173, -1, -1, 176, -1, -1, -1, -1, 183, 182, -1, -1, -1, 190, 187, -1, 189, -1, -1, -1, 193, -1, -1, 196, -1, -1, -1, 220, 219, 218, 211, 210, 209, 206, -1, 208, -1, -1, -1, -1, 217, 216, 215, -1, -1, -1, -1, -1, -1, -1, 225, 224, -1, -1, -1, 282, 277, 274, 265, 234, 233, -1, -1, 264, 261, 258, 255, 246, 245, 244, 243, -1, -1, -1, -1, 252, 249, -1, 251, -1, -1, 254, -1, -1, 257, -1, -1, 260, -1, -1, 263, -1, -1, -1, 273, 272, 271, 270, -1, -1, -1, -1, -1, 276, -1, -1, 279, -1, 281, -1, -1, 312, 307, 306, 305, 300, 299, 294, 291, -1, 293, -1, -1, 296, -1, 298, -1, -1, -1, 304, 303, -1, -1, -1, -1, -1, 311, 310, -1, -1, -1, 316, 315, -1, -1, -1, 321, 320, -1, -1, 323, -1, -1, 326, -1, -1, -1, 332, 331, -1, -1, 336, 335, -1, -1, -1, 349, 348, 345, 342, -1, 344, -1, -1, 347, -1, -1, -1, -1, 360, 355, 354, -1, -1, 359, 358, -1, -1, -1, 362, -1, -1, 381, 372, 371, 368, -1, 370, -1, -1, -1, 374, -1, 376, -1, 380, 379, -1, -1, -1, -1, 400, 395, 394, 389, 388, -1, -1, 393, 392, -1, -1, -1, -1, 397, -1, 399, -1, -1, -1], "feature": [98, 88, 113, 112, 72, 83, 85, 110, 111, 86, 104, 80, 115, 59, -2, -2, -2, 115, -2, -2, 113, 80, 68, 17, 105, 89, 82, 71, 75, 81, 98, 113, 111, 108, 47, 110, 110, 110, 43, 111, 16, -2, -2, -2, 104, -2, -2, 109, 0, -2, -2, -2, -2, 99, -2, -2, 111, -2, -2, 114, 79, 20, 87, 43, 108, 47, -2, 111, 1, -2, -2, -2, 109, 47, -2, -2, -2, 111, -2, -2, 107, 108, -2, -2, 107, 108, 107, -2, -2, -2, 80, 80, 113, -2, 112, -2, -2, -2, -2, 109, -2, -2, 109, -2, -2, 107, 107, -2, 107, -2, -2, -2, 47, 112, 115, -2, -2, 87, -2, 112, -2, -2, 80, -2, -2, 107, -2, 110, 111, -2, 91, -2, -2, -2, 47, -2, 115, -2, -2, 80, 92, 58, 79, 92, 115, -2, 115, 52, -2, -2, -2, 21, -2, 110, -2, -2, 85, -2, -2, 109, 81, 110, -2, -2, -2, 115, -2, -2, 81, -2, -2, 108, -2, -2, 80, -2, -2, -2, -2, 94, 92, -2, -2, -2, 102, 114, -2, 80, -2, -2, -2, 99, -2, -2, 109, -2, -2, -2, 47, 97, 27, 101, 21, 93, 79, -2, 81, -2, -2, -2, -2, 80, 115, 109, -2, -2, -2, -2, -2, -2, -2, 109, 81, -2, -2, -2, 22, 112, 47, 80, 104, 99, -2, -2, 114, 92, 99, 58, 80, 1, 108, 81, -2, -2, -2, -2, 113, 80, -2, 110, -2, -2, 112, -2, -2, 80, -2, -2, 108, -2, -2, 79, -2, -2, -2, 81, 1, 108, 108, -2, -2, -2, -2, -2, 81, -2, -2, 16, -2, 80, -2, -2, 108, 98, 94, 91, 112, 108, 80, 87, -2, 107, -2, -2, 80, -2, 80, -2, -2, -2, 87, 112, -2, -2, -2, -2, -2, 80, 79, -2, -2, -2, 80, 112, -2, -2, -2, 80, 115, -2, -2, 33, -2, -2, 79, -2, -2, -2, 80, 109, -2, -2, 25, 110, -2, -2, -2, 16, 83, 110, 22, -2, 81, -2, -2, 80, -2, -2, -2, -2, 73, 80, 110, -2, -2, 79, 112, -2, -2, -2, 114, -2, -2, 80, 111, 27, 91, -2, 88, -2, -2, -2, 81, -2, 79, -2, 108, 81, -2, -2, -2, -2, 105, 81, 87, 2, 63, -2, -2, 83, 80, -2, -2, -2, -2, 80, -2, 92, -2, -2, -2], "threshold": [-1.3309068083763123, 0.2495501465164125, 1.993812918663025, 11.467631340026855, 0.5, 3.7367412839084864, 33.28228569030762, 8.248083114624023, 0.8165608048439026, 36.04790741857141, -1.5360623598098755, -0.003038798808120191, 3.7410138845443726, 0.5, -2.0, -2.0, -2.0, -0.2315494790673256, -2.0, -2.0, -0.21432934701442719, 3.3135752081871033, 0.5, 0.5, 10.685399055480957, 48.49460119428113, 78.57798770465888, 0.5, 0.5, -0.025967968627810478, -1.4411453008651733, -0.4246286153793335, -0.05607396364212036, -1.7541205883026123, 0.5, 5.738985061645508, 0.49268800020217896, 0.35582809150218964, 0.5, -1.2403639554977417, 0.5, -2.0, -2.0, -2.0, -0.32551634311676025, -2.0, -2.0, -1.7482967972755432, 0.5, -2.0, -2.0, -2.0, -2.0, -1.18263578414917, -2.0, -2.0, -1.2299754619598389, -2.0, -2.0, -0.3709394931793213, -0.06322187185287476, 0.5, 0.991495743393898, 0.5, -1.6221517324447632, 0.5, -2.0, -1.0637593269348145, 0.5, -2.0, -2.0, -2.0, -1.3833066821098328, 0.5, -2.0, -2.0, -2.0, -1.1988099813461304, -2.0, -2.0, -3.5235179662704468, -1.3440747261047363, -2.0, -2.0, -0.1698908507823944, -1.7446942329406738, -3.067610025405884, -2.0, -2.0, -2.0, -0.0027246136451140046, -0.002749060280621052, -0.45091603696346283, -2.0, 0.07838256657123566, -2.0, -2.0, -2.0, -2.0, -1.7726294994354248, -2.0, -2.0, -1.1399799585342407, -2.0, -2.0, 0.324653223156929, -0.9967067539691925, -2.0, -0.5794351696968079, -2.0, -2.0, -2.0, 0.5, 2.5697805881500244, 0.9990816116333008, -2.0, -2.0, 0.991495743393898, -2.0, 3.8747987747192383, -2.0, -2.0, -0.002853637794032693, -2.0, -2.0, 0.332380473613739, -2.0, 1.8156672418117523, -0.5651108920574188, -2.0, 1.3623499933164567, -2.0, -2.0, -2.0, 0.5, -2.0, 2.8990032076835632, -2.0, -2.0, 0.044218454509973526, 34.87473487854004, 0.5, 21.227663040161133, 5.80301600927487, 1.1070317029953003, -2.0, 1.1502116918563843, 0.5, -2.0, -2.0, -2.0, 0.5, -2.0, -0.14599162712693214, -2.0, -2.0, 3.1604262962937355, -2.0, -2.0, -0.6533264368772507, -0.003807667177170515, -0.009131703525781631, -2.0, -2.0, -2.0, 1.7763222455978394, -2.0, -2.0, 0.07541142776608467, -2.0, -2.0, 0.5836122632026672, -2.0, -2.0, 0.022540129837580025, -2.0, -2.0, -2.0, -2.0, 13.815494848415256, 11.617359938565642, -2.0, -2.0, -2.0, 2.265549123287201, -0.34467434883117676, -2.0, -0.0022605793783441186, -2.0, -2.0, -2.0, -1.162339210510254, -2.0, -2.0, -1.4319720268249512, -2.0, -2.0, -2.0, 0.5, 13.448990004137158, 0.5, 1.5062580406665802, 0.5, 45.361991197336465, 0.19145546294748783, -2.0, 0.014064058325971018, -2.0, -2.0, -2.0, -2.0, -0.002961384365335107, 1.7331421643029898, -1.6996314525604248, -2.0, -2.0, -2.0, -2.0, -2.0, -2.0, -2.0, -0.17883926630020142, -0.02107357047498226, -2.0, -2.0, -2.0, 0.5, 5.654368877410889, 0.5, -0.002575670019723475, -1.7549908757209778, -1.1866950988769531, -2.0, -2.0, 0.3119540587067604, 5.80301600927487, -1.0162041187286377, 0.5, -0.0030274809105321765, 0.5, -1.6315781474113464, -0.02694047149270773, -2.0, -2.0, -2.0, -2.0, -0.22747306060045958, -0.002742722281254828, -2.0, 1.5419474393129349, -2.0, -2.0, 0.4342965632677078, -2.0, -2.0, -0.002855901373550296, -2.0, -2.0, -0.7879205271601677, -2.0, -2.0, -0.04070895537734032, -2.0, -2.0, -2.0, -0.021806933917105198, 0.5, -0.566401481628418, -1.7635469436645508, -2.0, -2.0, -2.0, -2.0, -2.0, -0.024692555889487267, -2.0, -2.0, 0.5, -2.0, -0.0030229537514969707, -2.0, -2.0, -1.1461215019226074, -1.5466927886009216, 13.815494848415256, 1.3623499933164567, 0.9088485836982727, -1.3063693642616272, -0.002846394316293299, 0.991495743393898, -2.0, -3.546699643135071, -2.0, -2.0, -0.0021098246797919273, -2.0, 0.0009930934174917638, -2.0, -2.0, -2.0, 0.991495743393898, 5.5357306599617, -2.0, -2.0, -2.0, -2.0, -2.0, -0.00301797385327518, -0.06181481294333935, -2.0, -2.0, -2.0, -0.0030016760574653745, 0.434296578168869, -2.0, -2.0, -2.0, -0.0030311025911942124, 2.4456127882003784, -2.0, -2.0, 0.5, -2.0, -2.0, -0.04493012651801109, -2.0, -2.0, -2.0, -0.0030265754321590066, -0.37350067496299744, -2.0, -2.0, 0.5, -0.2372315749526024, -2.0, -2.0, -2.0, 0.5, 3.7367412839084864, 7.335684299468994, 0.5, -2.0, 0.052932269871234894, -2.0, -2.0, -0.003040157025679946, -2.0, -2.0, -2.0, -2.0, 0.5, -0.003036987967789173, 3.9141858369112015, -2.0, -2.0, -0.02382427267730236, 2.095228612422943, -2.0, -2.0, -2.0, -0.3315417915582657, -2.0, -2.0, 0.006196162779815495, -1.0637593269348145, 0.5, 2.958163619041443, -2.0, 6.11460280418396, -2.0, -2.0, -2.0, 0.20016276091337204, -2.0, 0.011352155357599258, -2.0, -1.7588337659835815, 0.3860701471567154, -2.0, -2.0, -2.0, -2.0, 2.6620428562164307, -0.02694047149270773, 0.991495743393898, 0.5, 0.5, -2.0, -2.0, 3.7367412839084864, -0.0029930744785815477, -2.0, -2.0, -2.0, -2.0, -0.00301706837490201, -2.0, 5.80301600927487, -2.0, -2.0, -2.0], "value": [[0.7923920084207117, 0.1969100441277681, 0.008311910448969678, 0.0022797660013764627, 0.00010627100117404154], [0.046596652209756624, 0.9171774376620428, 0.024971026440613164, 0.010765021446407876, 0.0004898622411794927], [0.026829417149832165, 0.9364174549893195, 0.02551113823619164, 0.010973451327433627, 0.00026853829722306986], [0.00819467968516489, 0.9552530636644415, 0.02513201155723822, 0.011146258842283551, 0.00027398625087177446], [0.0073719688458576856, 0.9671922139890683, 0.014011790100859641, 0.011158939143387319, 0.0002650879208270743], [0.006810514925848132, 0.9751129781681624, 0.006619565909235567, 0.011189612373496277, 0.00026732862325759023], [0.000985953365686262, 0.9808315300203593, 0.006658386365673457, 0.011255233875821094, 0.0002688963724598896], [0.0009890180463682486, 0.9836105580887547, 0.0066790829105388225, 0.008451608759874125, 0.0002697321944640678], [0.0009913354704981139, 0.9855677004879431, 0.004712062106523502, 0.008458537715808583, 0.0002703642192267583], [0.0005084442978659081, 0.9952865839414052, 0.0023910623737477842, 0.0016764920091794809, 0.00013741737780159679], [0.0005087519078196543, 0.9958062342733786, 0.0023925089719086445, 0.0011687543828289356, 0.00012375046406424024], [0.0684931506849315, 0.5753424657534246, 0.3561643835616438, 0.0, 0.0], [0.16129032258064516, 0.016129032258064516, 0.8225806451612904, 0.0, 0.0], [0.0, 0.019230769230769232, 0.9807692307692307, 0.0, 0.0], [0.0, 0.0, 1.0, 0.0, 0.0], [0.0, 1.0, 0.0, 0.0, 0.0], [1.0, 0.0, 0.0, 0.0, 0.0], [0.0, 0.9880952380952381, 0.011904761904761904, 0.0, 0.0], [0.0, 1.0, 0.0, 0.0, 0.0], [0.0, 0.0, 1.0, 0.0, 0.0], [0.00037199818134222456, 0.99665201636792, 0.0016808806712500517, 0.0011711053857070032, 0.0001239993937807415], [0.00030424560918268566, 0.9975660351265385, 0.0012446411284746232, 0.0007606140229567142, 0.00012446411284746232], [0.00030426664822626377, 0.9976350183251504, 0.0012447271972892608, 0.0006915151096051449, 0.00012447271972892607], [0.00030428769017980635, 0.9976901798063624, 0.0011894882434301522, 0.0006915629322268327, 0.00012448132780082987], [0.00023515741714159243, 0.9977590881425331, 0.0011896198749515852, 0.0006916394621811542, 0.00012449510319260775], [0.00023716517857142857, 0.9981863839285714, 0.00078125, 0.0006696428571428571, 0.0001255580357142857], [0.00023722143923642604, 0.9982557247114968, 0.0007814353292494035, 0.0006279391038611278, 9.767941615617544e-05], [0.000223270352488069, 0.9982696547682175, 0.0007814462337082414, 0.0006279478663726941, 9.768077921353018e-05], [0.00022327346813468972, 0.9982835852137145, 0.0007675025467129959, 0.0006279566291288148, 9.768214230892676e-05], [0.00016749249773187242, 0.9983390327308256, 0.0007676739479377487, 0.0006280968664945216, 9.770395701025892e-05], [0.0006103143118706134, 0.9896246566981995, 0.00549282880683552, 0.004068762079137422, 0.00020343810395687112], [0.0002037905033625433, 0.9904218463419605, 0.005094762584063582, 0.004075810067250866, 0.0002037905033625433], [0.00020766275568476794, 0.9921088152839789, 0.004257086491537743, 0.003218772713113903, 0.00020766275568476794], [0.0002308669052291354, 0.9950363615375736, 0.0017315017892185155, 0.0027704028627496247, 0.0002308669052291354], [0.011494252873563218, 0.8390804597701149, 0.09195402298850575, 0.034482758620689655, 0.022988505747126436], [0.0, 0.8795180722891566, 0.060240963855421686, 0.03614457831325301, 0.024096385542168676], [0.0, 0.9090909090909091, 0.025974025974025976, 0.03896103896103896, 0.025974025974025976], [0.0, 0.8055555555555556, 0.05555555555555555, 0.08333333333333333, 0.05555555555555555], [0.0, 0.9, 0.03333333333333333, 0.0, 0.06666666666666667], [0.0, 0.9615384615384616, 0.038461538461538464, 0.0, 0.0], [0.0, 0.75, 0.25, 0.0, 0.0], [0.0, 1.0, 0.0, 0.0, 0.0], [0.0, 0.0, 1.0, 0.0, 0.0], [0.0, 1.0, 0.0, 0.0, 0.0], [0.0, 0.5, 0.0, 0.0, 0.5], [0.0, 1.0, 0.0, 0.0, 0.0], [0.0, 0.0, 0.0, 0.0, 1.0], [0.0, 0.3333333333333333, 0.16666666666666666, 0.5, 0.0], [0.0, 0.6666666666666666, 0.3333333333333333, 0.0, 0.0], [0.0, 1.0, 0.0, 0.0, 0.0], [0.0, 0.0, 1.0, 0.0, 0.0], [0.0, 0.0, 0.0, 1.0, 0.0], [0.0, 1.0, 0.0, 0.0, 0.0], [0.0, 0.5, 0.5, 0.0, 0.0], [0.0, 0.0, 1.0, 0.0, 0.0], [0.0, 1.0, 0.0, 0.0, 0.0], [0.25, 0.0, 0.75, 0.0, 0.0], [1.0, 0.0, 0.0, 0.0, 0.0], [0.0, 0.0, 1.0, 0.0, 0.0], [0.0001166044776119403, 0.9966184701492538, 0.0008162313432835821, 0.0024486940298507464, 0.0], [0.00011697274535033338, 0.9969587086208913, 0.0008188092174523336, 0.0021055094163060007, 0.0], [0.00011724703951225231, 0.997186071051706, 0.0008207292765857662, 0.001875952632196037, 0.0], [0.00011732957878681215, 0.9973014196879033, 0.0007039774727208729, 0.0018772732605889944, 0.0], [0.00015271838729383018, 0.9989309712889431, 0.0009163103237629811, 0.0, 0.0], [0.00015309246785058175, 0.9990814451928965, 0.0007654623392529087, 0.0, 0.0], [0.002173913043478261, 0.9891304347826086, 0.008695652173913044, 0.0, 0.0], [0.0, 1.0, 0.0, 0.0, 0.0], [0.16666666666666666, 0.16666666666666666, 0.6666666666666666, 0.0, 0.0], [0.5, 0.5, 0.0, 0.0, 0.0], [0.0, 1.0, 0.0, 0.0, 0.0], [1.0, 0.0, 0.0, 0.0, 0.0], [0.0, 0.0, 1.0, 0.0, 0.0], [0.0, 0.9998353096179183, 0.00016469038208168644, 0.0, 0.0], [0.0, 0.9981378026070763, 0.00186219739292365, 0.0, 0.0], [0.0, 1.0, 0.0, 0.0, 0.0], [0.0, 0.0, 1.0, 0.0, 0.0], [0.0, 1.0, 0.0, 0.0, 0.0], [0.0, 0.9375, 0.0625, 0.0, 0.0], [0.0, 0.0, 1.0, 0.0, 0.0], [0.0, 1.0, 0.0, 0.0, 0.0], [0.0, 0.9918987341772152, 0.0, 0.00810126582278481, 0.0], [0.0, 0.7777777777777778, 0.0, 0.2222222222222222, 0.0], [0.0, 0.0, 0.0, 1.0, 0.0], [0.0, 1.0, 0.0, 0.0, 0.0], [0.0, 0.9928789420142421, 0.0, 0.007121057985757884, 0.0], [0.0, 0.9993650793650793, 0.0, 0.0006349206349206349, 0.0], [0.0, 0.75, 0.0, 0.25, 0.0], [0.0, 0.0, 0.0, 1.0, 0.0], [0.0, 1.0, 0.0, 0.0, 0.0], [0.0, 1.0, 0.0, 0.0, 0.0], [0.0, 0.9667519181585678, 0.0, 0.03324808184143223, 0.0], [0.0, 0.8505747126436781, 0.0, 0.14942528735632185, 0.0], [0.0, 0.9866666666666667, 0.0, 0.013333333333333334, 0.0], [0.0, 1.0, 0.0, 0.0, 0.0], [0.0, 0.6666666666666666, 0.0, 0.3333333333333333, 0.0], [0.0, 0.0, 0.0, 1.0, 0.0], [0.0, 1.0, 0.0, 0.0, 0.0], [0.0, 0.0, 0.0, 1.0, 0.0], [0.0, 1.0, 0.0, 0.0, 0.0], [0.0, 0.8333333333333334, 0.16666666666666666, 0.0, 0.0], [0.0, 0.0, 1.0, 0.0, 0.0], [0.0, 1.0, 0.0, 0.0, 0.0], [0.0, 0.9, 0.0, 0.1, 0.0], [0.0, 0.0, 0.0, 1.0, 0.0], [0.0, 1.0, 0.0, 0.0, 0.0], [0.0, 0.8888888888888888, 0.0, 0.1111111111111111, 0.0], [0.0, 0.96, 0.0, 0.04, 0.0], [0.0, 1.0, 0.0, 0.0, 0.0], [0.0, 0.75, 0.0, 0.25, 0.0], [0.0, 0.0, 0.0, 1.0, 0.0], [0.0, 1.0, 0.0, 0.0, 0.0], [0.0, 0.0, 0.0, 1.0, 0.0], [0.0, 0.9659090909090909, 0.026859504132231406, 0.007231404958677686, 0.0], [0.0, 0.9915074309978769, 0.0010615711252653928, 0.0074309978768577496, 0.0], [0.0, 0.9989247311827957, 0.001075268817204301, 0.0, 0.0], [0.0, 1.0, 0.0, 0.0, 0.0], [0.0, 0.0, 1.0, 0.0, 0.0], [0.0, 0.4166666666666667, 0.0, 0.5833333333333334, 0.0], [0.0, 1.0, 0.0, 0.0, 0.0], [0.0, 0.125, 0.0, 0.875, 0.0], [0.0, 0.0, 0.0, 1.0, 0.0], [0.0, 1.0, 0.0, 0.0, 0.0], [0.0, 0.038461538461538464, 0.9615384615384616, 0.0, 0.0], [0.0, 0.0, 1.0, 0.0, 0.0], [0.0, 1.0, 0.0, 0.0, 0.0], [0.0, 0.9016393442622951, 0.04918032786885246, 0.04918032786885246, 0.0], [0.0, 1.0, 0.0, 0.0, 0.0], [0.0, 0.21739130434782608, 0.391304347826087, 0.391304347826087, 0.0], [0.0, 0.35714285714285715, 0.0, 0.6428571428571429, 0.0], [0.0, 1.0, 0.0, 0.0, 0.0], [0.0, 0.1, 0.0, 0.9, 0.0], [0.0, 0.0, 0.0, 1.0, 0.0], [0.0, 1.0, 0.0, 0.0, 0.0], [0.0, 0.0, 1.0, 0.0, 0.0], [0.23529411764705882, 0.5294117647058824, 0.23529411764705882, 0.0, 0.0], [0.0, 1.0, 0.0, 0.0, 0.0], [0.5, 0.0, 0.5, 0.0, 0.0], [0.0, 0.0, 1.0, 0.0, 0.0], [1.0, 0.0, 0.0, 0.0, 0.0], [9.706538971753971e-05, 0.9997249813958003, 1.6177564952923284e-05, 8.088782476461643e-05, 8.088782476461643e-05], [0.0, 0.9998220035922911, 1.61814916098966e-05, 8.0907458049483e-05, 8.0907458049483e-05], [0.0, 0.9998381798469181, 1.6182015308186483e-05, 8.09100765409324e-05, 6.472806123274593e-05], [0.0, 0.9999027426570706, 1.620955715489853e-05, 6.483822861959411e-05, 1.620955715489853e-05], [0.0, 0.9999513034444697, 1.6232185176768498e-05, 1.6232185176768498e-05, 1.6232185176768498e-05], [0.0, 0.9999837398373984, 1.6260162601626015e-05, 0.0, 0.0], [0.0, 1.0, 0.0, 0.0, 0.0], [0.0, 0.9972677595628415, 0.00273224043715847, 0.0, 0.0], [0.0, 0.8571428571428571, 0.14285714285714285, 0.0, 0.0], [0.0, 1.0, 0.0, 0.0, 0.0], [0.0, 0.0, 1.0, 0.0, 0.0], [0.0, 1.0, 0.0, 0.0, 0.0], [0.0, 0.9811320754716981, 0.0, 0.009433962264150943, 0.009433962264150943], [0.0, 1.0, 0.0, 0.0, 0.0], [0.0, 0.0, 0.0, 0.5, 0.5], [0.0, 0.0, 0.0, 1.0, 0.0], [0.0, 0.0, 0.0, 0.0, 1.0], [0.0, 0.9651162790697675, 0.0, 0.03488372093023256, 0.0], [0.0, 1.0, 0.0, 0.0, 0.0], [0.0, 0.0, 0.0, 1.0, 0.0], [0.0, 0.9619047619047619, 0.0, 0.009523809523809525, 0.02857142857142857], [0.0, 0.9901960784313726, 0.0, 0.0, 0.00980392156862745], [0.0, 0.5, 0.0, 0.0, 0.5], [0.0, 0.0, 0.0, 0.0, 1.0], [0.0, 1.0, 0.0, 0.0, 0.0], [0.0, 1.0, 0.0, 0.0, 0.0], [0.0, 0.0, 0.0, 0.3333333333333333, 0.6666666666666666], [0.0, 0.0, 0.0, 0.0, 1.0], [0.0, 0.0, 0.0, 1.0, 0.0], [0.0, 0.5, 0.0, 0.0, 0.5], [0.0, 0.0, 0.0, 0.0, 1.0], [0.0, 1.0, 0.0, 0.0, 0.0], [0.4, 0.6, 0.0, 0.0, 0.0], [0.0, 1.0, 0.0, 0.0, 0.0], [1.0, 0.0, 0.0, 0.0, 0.0], [0.25, 0.75, 0.0, 0.0, 0.0], [0.0, 1.0, 0.0, 0.0, 0.0], [1.0, 0.0, 0.0, 0.0, 0.0], [0.0, 0.0, 1.0, 0.0, 0.0], [1.0, 0.0, 0.0, 0.0, 0.0], [0.0, 0.7058823529411765, 0.0, 0.17647058823529413, 0.11764705882352941], [0.0, 0.8571428571428571, 0.0, 0.0, 0.14285714285714285], [0.0, 1.0, 0.0, 0.0, 0.0], [0.0, 0.0, 0.0, 0.0, 1.0], [0.0, 0.0, 0.0, 1.0, 0.0], [0.0, 0.9477124183006536, 0.049019607843137254, 0.0032679738562091504, 0.0], [0.0, 0.9965635738831615, 0.0, 0.003436426116838488, 0.0], [0.0, 1.0, 0.0, 0.0, 0.0], [0.0, 0.3333333333333333, 0.0, 0.6666666666666666, 0.0], [0.0, 0.0, 0.0, 1.0, 0.0], [0.0, 1.0, 0.0, 0.0, 0.0], [0.0, 0.0, 1.0, 0.0, 0.0], [0.625, 0.375, 0.0, 0.0, 0.0], [0.0, 1.0, 0.0, 0.0, 0.0], [1.0, 0.0, 0.0, 0.0, 0.0], [0.0, 0.2, 0.8, 0.0, 0.0], [0.0, 0.0, 1.0, 0.0, 0.0], [0.0, 1.0, 0.0, 0.0, 0.0], [0.0, 0.0, 0.0, 1.0, 0.0], [0.01845018450184502, 0.7527675276752768, 0.11808118081180811, 0.11070110701107011, 0.0], [0.02074688796680498, 0.8464730290456431, 0.008298755186721992, 0.12448132780082988, 0.0], [0.022935779816513763, 0.9357798165137615, 0.009174311926605505, 0.03211009174311927, 0.0], [0.023474178403755867, 0.9577464788732394, 0.009389671361502348, 0.009389671361502348, 0.0], [0.0, 0.9850746268656716, 0.004975124378109453, 0.009950248756218905, 0.0], [0.0, 0.99, 0.0, 0.01, 0.0], [0.0, 0.9949748743718593, 0.0, 0.005025125628140704, 0.0], [0.0, 1.0, 0.0, 0.0, 0.0], [0.0, 0.8571428571428571, 0.0, 0.14285714285714285, 0.0], [0.0, 0.0, 0.0, 1.0, 0.0], [0.0, 1.0, 0.0, 0.0, 0.0], [0.0, 0.0, 0.0, 1.0, 0.0], [0.0, 0.0, 1.0, 0.0, 0.0], [0.4166666666666667, 0.5, 0.08333333333333333, 0.0, 0.0], [0.7142857142857143, 0.14285714285714285, 0.14285714285714285, 0.0, 0.0], [0.8333333333333334, 0.0, 0.16666666666666666, 0.0, 0.0], [0.0, 0.0, 1.0, 0.0, 0.0], [1.0, 0.0, 0.0, 0.0, 0.0], [0.0, 1.0, 0.0, 0.0, 0.0], [0.0, 1.0, 0.0, 0.0, 0.0], [0.0, 0.0, 0.0, 1.0, 0.0], [0.0, 0.0, 0.0, 1.0, 0.0], [0.0, 0.0, 1.0, 0.0, 0.0], [0.0, 0.13636363636363635, 0.0, 0.8409090909090909, 0.022727272727272728], [0.0, 0.8571428571428571, 0.0, 0.0, 0.14285714285714285], [0.0, 0.0, 0.0, 0.0, 1.0], [0.0, 1.0, 0.0, 0.0, 0.0], [0.0, 0.0, 0.0, 1.0, 0.0], [0.008159934720522236, 0.8412892696858425, 0.03916768665850673, 0.1091391268869849, 0.002243982048143615], [0.00922509225092251, 0.944880073800738, 0.043588560885608855, 0.0016143911439114391, 0.0006918819188191881], [0.009782342871117632, 0.9760332599657618, 0.01173881144534116, 0.0017119100024455857, 0.0007336757153338225], [0.009859502095144195, 0.9834853339906334, 0.004190288390436283, 0.0017254128666502342, 0.0007394626571358146], [0.0, 0.9937154348919055, 0.004273504273504274, 0.001256913021618904, 0.0007541478129713424], [0.0, 0.25, 0.75, 0.0, 0.0], [0.0, 1.0, 0.0, 0.0, 0.0], [0.0, 0.0, 1.0, 0.0, 0.0], [0.0, 0.9944640161046804, 0.0035228988424760945, 0.0012581781580271766, 0.000754906894816306], [0.0, 0.9949647532729103, 0.003524672708962739, 0.0007552870090634441, 0.0007552870090634441], [0.0, 0.9954659949622167, 0.003526448362720403, 0.0005037783375314861, 0.0005037783375314861], [0.0, 0.9962140333165068, 0.0027763755678950025, 0.0005047955577990914, 0.0005047955577990914], [0.0, 0.9964637534730992, 0.0027784794139934328, 0.0005051780752715333, 0.00025258903763576663], [0.0, 0.977818853974122, 0.02033271719038817, 0.0, 0.0018484288354898336], [0.0, 0.2, 0.7333333333333333, 0.0, 0.06666666666666667], [0.0, 0.0, 0.9166666666666666, 0.0, 0.08333333333333333], [0.0, 0.0, 1.0, 0.0, 0.0], [0.0, 0.0, 0.0, 0.0, 1.0], [0.0, 1.0, 0.0, 0.0, 0.0], [0.0, 1.0, 0.0, 0.0, 0.0], [0.0, 0.9994148624926857, 0.0, 0.0005851375073142189, 0.0], [0.0, 0.9997072599531616, 0.0, 0.0002927400468384075, 0.0], [0.0, 1.0, 0.0, 0.0, 0.0], [0.0, 0.975609756097561, 0.0, 0.024390243902439025, 0.0], [0.0, 1.0, 0.0, 0.0, 0.0], [0.0, 0.0, 0.0, 1.0, 0.0], [0.0, 0.5, 0.0, 0.5, 0.0], [0.0, 0.0, 0.0, 1.0, 0.0], [0.0, 1.0, 0.0, 0.0, 0.0], [0.0, 0.6666666666666666, 0.0, 0.0, 0.3333333333333333], [0.0, 1.0, 0.0, 0.0, 0.0], [0.0, 0.0, 0.0, 0.0, 1.0], [0.0, 0.625, 0.375, 0.0, 0.0], [0.0, 0.0, 1.0, 0.0, 0.0], [0.0, 1.0, 0.0, 0.0, 0.0], [0.0, 0.0, 0.0, 0.5, 0.5], [0.0, 0.0, 0.0, 0.0, 1.0], [0.0, 0.0, 0.0, 1.0, 0.0], [0.0, 0.0, 0.0, 1.0, 0.0], [0.5063291139240507, 0.46835443037974683, 0.0, 0.02531645569620253, 0.0], [0.9302325581395349, 0.023255813953488372, 0.0, 0.046511627906976744, 0.0], [0.975609756097561, 0.024390243902439025, 0.0, 0.0, 0.0], [0.75, 0.25, 0.0, 0.0, 0.0], [1.0, 0.0, 0.0, 0.0, 0.0], [0.5, 0.5, 0.0, 0.0, 0.0], [1.0, 0.0, 0.0, 0.0, 0.0], [0.0, 0.0, 0.0, 1.0, 0.0], [0.0, 1.0, 0.0, 0.0, 0.0], [0.0, 0.03125, 0.96875, 0.0, 0.0], [0.0, 0.0, 1.0, 0.0, 0.0], [0.0, 1.0, 0.0, 0.0, 0.0], [0.0, 0.4291497975708502, 0.5708502024291497, 0.0, 0.0], [0.0, 1.0, 0.0, 0.0, 0.0], [0.0, 0.0472972972972973, 0.9527027027027027, 0.0, 0.0], [0.0, 0.0, 1.0, 0.0, 0.0], [0.0, 1.0, 0.0, 0.0, 0.0], [0.0, 0.04770318021201413, 0.00530035335689046, 0.9328621908127208, 0.014134275618374558], [0.0, 0.029143897996357013, 0.0, 0.9617486338797814, 0.009107468123861567], [0.0, 0.016728624535315983, 0.0, 0.9795539033457249, 0.0037174721189591076], [0.0, 0.0148975791433892, 0.0, 0.9813780260707635, 0.0037243947858473], [0.0, 0.013059701492537313, 0.0, 0.9832089552238806, 0.0037313432835820895], [0.0, 0.06451612903225806, 0.0, 0.9139784946236559, 0.021505376344086023], [0.0, 0.04395604395604396, 0.0, 0.9340659340659341, 0.02197802197802198], [0.0, 0.1111111111111111, 0.0, 0.7777777777777778, 0.1111111111111111], [0.0, 0.0, 0.0, 1.0, 0.0], [0.0, 0.5, 0.0, 0.0, 0.5], [0.0, 0.0, 0.0, 0.0, 1.0], [0.0, 1.0, 0.0, 0.0, 0.0], [0.0, 0.0273972602739726, 0.0, 0.9726027397260274, 0.0], [0.0, 0.0, 0.0, 1.0, 0.0], [0.0, 0.25, 0.0, 0.75, 0.0], [0.0, 1.0, 0.0, 0.0, 0.0], [0.0, 0.0, 0.0, 1.0, 0.0], [0.0, 1.0, 0.0, 0.0, 0.0], [0.0, 0.002257336343115124, 0.0, 0.9977426636568849, 0.0], [0.0, 0.5, 0.0, 0.5, 0.0], [0.0, 1.0, 0.0, 0.0, 0.0], [0.0, 0.0, 0.0, 1.0, 0.0], [0.0, 0.0, 0.0, 1.0, 0.0], [0.0, 1.0, 0.0, 0.0, 0.0], [0.0, 1.0, 0.0, 0.0, 0.0], [0.0, 0.6363636363636364, 0.0, 0.09090909090909091, 0.2727272727272727], [0.0, 0.0, 0.0, 0.25, 0.75], [0.0, 0.0, 0.0, 0.0, 1.0], [0.0, 0.0, 0.0, 1.0, 0.0], [0.0, 1.0, 0.0, 0.0, 0.0], [0.0, 0.6470588235294118, 0.17647058823529413, 0.0, 0.17647058823529413], [0.0, 0.0, 0.5, 0.0, 0.5], [0.0, 0.0, 0.0, 0.0, 1.0], [0.0, 0.0, 1.0, 0.0, 0.0], [0.0, 1.0, 0.0, 0.0, 0.0], [0.0, 0.14835164835164835, 0.8461538461538461, 0.005494505494505495, 0.0], [0.0, 0.0064516129032258064, 0.9935483870967742, 0.0, 0.0], [0.0, 1.0, 0.0, 0.0, 0.0], [0.0, 0.0, 1.0, 0.0, 0.0], [0.0, 0.9629629629629629, 0.0, 0.037037037037037035, 0.0], [0.0, 1.0, 0.0, 0.0, 0.0], [0.0, 0.0, 0.0, 1.0, 0.0], [0.0, 0.08677685950413223, 0.0, 0.9132231404958677, 0.0], [0.0, 0.0, 0.0, 1.0, 0.0], [0.0, 1.0, 0.0, 0.0, 0.0], [1.0, 0.0, 0.0, 0.0, 0.0], [0.07379518072289157, 0.030120481927710843, 0.8885542168674698, 0.007530120481927711, 0.0], [0.0, 0.001692047377326565, 0.9983079526226735, 0.0, 0.0], [0.0, 0.0, 1.0, 0.0, 0.0], [0.0, 1.0, 0.0, 0.0, 0.0], [0.6712328767123288, 0.2602739726027397, 0.0, 0.0684931506849315, 0.0], [0.0, 0.7916666666666666, 0.0, 0.20833333333333334, 0.0], [0.0, 0.0, 0.0, 1.0, 0.0], [0.0, 1.0, 0.0, 0.0, 0.0], [1.0, 0.0, 0.0, 0.0, 0.0], [0.06870937790157845, 0.07706592386258125, 0.8430826369545033, 0.01021355617455896, 0.0009285051067780873], [0.33035714285714285, 0.3705357142857143, 0.24553571428571427, 0.049107142857142856, 0.004464285714285714], [0.0, 0.5533333333333333, 0.36666666666666664, 0.07333333333333333, 0.006666666666666667], [0.0, 0.8695652173913043, 0.0, 0.11956521739130435, 0.010869565217391304], [0.0, 1.0, 0.0, 0.0, 0.0], [0.0, 0.0, 0.0, 0.9166666666666666, 0.08333333333333333], [0.0, 0.0, 0.0, 1.0, 0.0], [0.0, 0.0, 0.0, 0.0, 1.0], [0.0, 0.05172413793103448, 0.9482758620689655, 0.0, 0.0], [0.0, 0.0, 1.0, 0.0, 0.0], [0.0, 1.0, 0.0, 0.0, 0.0], [1.0, 0.0, 0.0, 0.0, 0.0], [0.0, 0.0, 1.0, 0.0, 0.0], [0.94536525475752, 0.00798035604665439, 0.04419889502762431, 0.0024554941682013503, 0.0], [0.0, 0.12643678160919541, 0.8275862068965517, 0.04597701149425287, 0.0], [0.0, 0.0, 0.972972972972973, 0.02702702702702703, 0.0], [0.0, 0.0, 0.0, 1.0, 0.0], [0.0, 0.0, 1.0, 0.0, 0.0], [0.0, 0.8461538461538461, 0.0, 0.15384615384615385, 0.0], [0.0, 0.9166666666666666, 0.0, 0.08333333333333333, 0.0], [0.0, 1.0, 0.0, 0.0, 0.0], [0.0, 0.0, 0.0, 1.0, 0.0], [0.0, 0.0, 0.0, 1.0, 0.0], [0.9987029831387808, 0.0012970168612191958, 0.0, 0.0, 0.0], [0.0, 1.0, 0.0, 0.0, 0.0], [1.0, 0.0, 0.0, 0.0, 0.0], [0.9604966139954854, 0.027652370203160272, 0.0, 0.001128668171557562, 0.01072234762979684], [0.0, 0.7, 0.0, 0.02857142857142857, 0.2714285714285714], [0.0, 0.9574468085106383, 0.0, 0.02127659574468085, 0.02127659574468085], [0.0, 0.9782608695652174, 0.0, 0.0, 0.021739130434782608], [0.0, 1.0, 0.0, 0.0, 0.0], [0.0, 0.8571428571428571, 0.0, 0.0, 0.14285714285714285], [0.0, 0.0, 0.0, 0.0, 1.0], [0.0, 1.0, 0.0, 0.0, 0.0], [0.0, 0.0, 0.0, 1.0, 0.0], [0.0, 0.17391304347826086, 0.0, 0.043478260869565216, 0.782608695652174], [0.0, 0.0, 0.0, 0.0, 1.0], [0.0, 0.5714285714285714, 0.0, 0.14285714285714285, 0.2857142857142857], [0.0, 1.0, 0.0, 0.0, 0.0], [0.0, 0.25, 0.0, 0.25, 0.5], [0.0, 0.0, 0.0, 0.3333333333333333, 0.6666666666666666], [0.0, 0.0, 0.0, 1.0, 0.0], [0.0, 0.0, 0.0, 0.0, 1.0], [0.0, 1.0, 0.0, 0.0, 0.0], [1.0, 0.0, 0.0, 0.0, 0.0], [0.9927676963523894, 0.0033930514671657265, 0.003836042103370902, 0.0, 3.2100770739505456e-06], [0.9965103802493323, 0.003405843099220555, 8.055447254542467e-05, 0.0, 3.222178901816987e-06], [0.999893306778576, 2.5865023375514876e-05, 8.082819804848399e-05, 0.0, 0.0], [0.9999030052215523, 1.616579640796004e-05, 8.08289820398002e-05, 0.0, 0.0], [0.9999967620984193, 3.2379015807435515e-06, 0.0, 0.0, 0.0], [1.0, 0.0, 0.0, 0.0, 0.0], [0.0, 1.0, 0.0, 0.0, 0.0], [0.9359823399558499, 0.008830022075055188, 0.05518763796909492, 0.0, 0.0], [0.0, 0.13793103448275862, 0.8620689655172413, 0.0, 0.0], [0.0, 0.0, 1.0, 0.0, 0.0], [0.0, 1.0, 0.0, 0.0, 0.0], [1.0, 0.0, 0.0, 0.0, 0.0], [0.0, 1.0, 0.0, 0.0, 0.0], [0.0009514747859181732, 0.9980970504281637, 0.0, 0.0, 0.0009514747859181732], [1.0, 0.0, 0.0, 0.0, 0.0], [0.0, 0.9990476190476191, 0.0, 0.0, 0.0009523809523809524], [0.0, 1.0, 0.0, 0.0, 0.0], [0.0, 0.0, 0.0, 0.0, 1.0], [0.0, 0.0, 1.0, 0.0, 0.0]]}}